digraph Tree {
node [shape=box, style="filled, rounded", color="black", fontname=helvetica] ;
edge [fontname=helvetica] ;
0 [label=<satisfaction_level &le; 0.465<br/>entropy = 0.793<br/>samples = 10499<br/>value = [7995, 2504]>, fillcolor="#eda877"] ;
1 [label=<number_project &le; 2.5<br/>entropy = 0.969<br/>samples = 2929<br/>value = [1164, 1765]>, fillcolor="#bcdef6"] ;
0 -> 1 [labeldistance=2.5, labelangle=45, headlabel="True"] ;
2 [label=<last_evaluation &le; 0.575<br/>entropy = 0.547<br/>samples = 1253<br/>value = [158, 1095]>, fillcolor="#56abe9"] ;
1 -> 2 ;
3 [label=<last_evaluation &le; 0.445<br/>entropy = 0.309<br/>samples = 1153<br/>value = [64, 1089]>, fillcolor="#45a3e7"] ;
2 -> 3 ;
4 [label=<entropy = 0.0<br/>samples = 25<br/>value = [25, 0]>, fillcolor="#e58139"] ;
3 -> 4 ;
5 [label=<satisfaction_level &le; 0.35<br/>entropy = 0.217<br/>samples = 1128<br/>value = [39, 1089]>, fillcolor="#40a1e6"] ;
3 -> 5 ;
6 [label=<time_spend_company &le; 3.5<br/>entropy = 0.828<br/>samples = 23<br/>value = [17, 6]>, fillcolor="#eead7f"] ;
5 -> 6 ;
7 [label=<average_montly_hours &le; 215.0<br/>entropy = 0.371<br/>samples = 14<br/>value = [13, 1]>, fillcolor="#e78b48"] ;
6 -> 7 ;
8 [label=<entropy = 0.0<br/>samples = 12<br/>value = [12, 0]>, fillcolor="#e58139"] ;
7 -> 8 ;
9 [label=<time_spend_company &le; 2.5<br/>entropy = 1.0<br/>samples = 2<br/>value = [1, 1]>, fillcolor="#ffffff"] ;
7 -> 9 ;
10 [label=<entropy = 0.0<br/>samples = 1<br/>value = [1, 0]>, fillcolor="#e58139"] ;
9 -> 10 ;
11 [label=<entropy = 0.0<br/>samples = 1<br/>value = [0, 1]>, fillcolor="#399de5"] ;
9 -> 11 ;
12 [label=<time_spend_company &le; 5.5<br/>entropy = 0.991<br/>samples = 9<br/>value = [4, 5]>, fillcolor="#d7ebfa"] ;
6 -> 12 ;
13 [label=<last_evaluation &le; 0.475<br/>entropy = 0.65<br/>samples = 6<br/>value = [1, 5]>, fillcolor="#61b1ea"] ;
12 -> 13 ;
14 [label=<entropy = 0.0<br/>samples = 1<br/>value = [1, 0]>, fillcolor="#e58139"] ;
13 -> 14 ;
15 [label=<entropy = 0.0<br/>samples = 5<br/>value = [0, 5]>, fillcolor="#399de5"] ;
13 -> 15 ;
16 [label=<entropy = 0.0<br/>samples = 3<br/>value = [3, 0]>, fillcolor="#e58139"] ;
12 -> 16 ;
17 [label=<average_montly_hours &le; 125.5<br/>entropy = 0.141<br/>samples = 1105<br/>value = [22, 1083]>, fillcolor="#3d9fe6"] ;
5 -> 17 ;
18 [label=<entropy = 0.0<br/>samples = 9<br/>value = [9, 0]>, fillcolor="#e58139"] ;
17 -> 18 ;
19 [label=<average_montly_hours &le; 166.0<br/>entropy = 0.093<br/>samples = 1096<br/>value = [13, 1083]>, fillcolor="#3b9ee5"] ;
17 -> 19 ;
20 [label=<salary_numerical &le; 2.5<br/>entropy = 0.035<br/>samples = 1086<br/>value = [4, 1082]>, fillcolor="#3a9de5"] ;
19 -> 20 ;
21 [label=<last_evaluation &le; 0.565<br/>entropy = 0.02<br/>samples = 1040<br/>value = [2, 1038]>, fillcolor="#399de5"] ;
20 -> 21 ;
22 [label=<average_montly_hours &le; 150.5<br/>entropy = 0.012<br/>samples = 964<br/>value = [1, 963]>, fillcolor="#399de5"] ;
21 -> 22 ;
23 [label=<entropy = 0.0<br/>samples = 655<br/>value = [0, 655]>, fillcolor="#399de5"] ;
22 -> 23 ;
24 [label=<average_montly_hours &le; 151.5<br/>entropy = 0.031<br/>samples = 309<br/>value = [1, 308]>, fillcolor="#3a9de5"] ;
22 -> 24 ;
25 [label=<satisfaction_level &le; 0.415<br/>entropy = 0.183<br/>samples = 36<br/>value = [1, 35]>, fillcolor="#3fa0e6"] ;
24 -> 25 ;
26 [label=<entropy = 0.0<br/>samples = 28<br/>value = [0, 28]>, fillcolor="#399de5"] ;
25 -> 26 ;
27 [label=<salary_numerical &le; 1.5<br/>entropy = 0.544<br/>samples = 8<br/>value = [1, 7]>, fillcolor="#55abe9"] ;
25 -> 27 ;
28 [label=<entropy = 0.0<br/>samples = 1<br/>value = [1, 0]>, fillcolor="#e58139"] ;
27 -> 28 ;
29 [label=<entropy = 0.0<br/>samples = 7<br/>value = [0, 7]>, fillcolor="#399de5"] ;
27 -> 29 ;
30 [label=<entropy = 0.0<br/>samples = 273<br/>value = [0, 273]>, fillcolor="#399de5"] ;
24 -> 30 ;
31 [label=<average_montly_hours &le; 132.5<br/>entropy = 0.101<br/>samples = 76<br/>value = [1, 75]>, fillcolor="#3c9ee5"] ;
21 -> 31 ;
32 [label=<average_montly_hours &le; 131.5<br/>entropy = 0.323<br/>samples = 17<br/>value = [1, 16]>, fillcolor="#45a3e7"] ;
31 -> 32 ;
33 [label=<entropy = 0.0<br/>samples = 16<br/>value = [0, 16]>, fillcolor="#399de5"] ;
32 -> 33 ;
34 [label=<entropy = 0.0<br/>samples = 1<br/>value = [1, 0]>, fillcolor="#e58139"] ;
32 -> 34 ;
35 [label=<entropy = 0.0<br/>samples = 59<br/>value = [0, 59]>, fillcolor="#399de5"] ;
31 -> 35 ;
36 [label=<department_numerical &le; 0.5<br/>entropy = 0.258<br/>samples = 46<br/>value = [2, 44]>, fillcolor="#42a1e6"] ;
20 -> 36 ;
37 [label=<average_montly_hours &le; 149.0<br/>entropy = 0.918<br/>samples = 3<br/>value = [2, 1]>, fillcolor="#f2c09c"] ;
36 -> 37 ;
38 [label=<entropy = 0.0<br/>samples = 1<br/>value = [0, 1]>, fillcolor="#399de5"] ;
37 -> 38 ;
39 [label=<entropy = 0.0<br/>samples = 2<br/>value = [2, 0]>, fillcolor="#e58139"] ;
37 -> 39 ;
40 [label=<entropy = 0.0<br/>samples = 43<br/>value = [0, 43]>, fillcolor="#399de5"] ;
36 -> 40 ;
41 [label=<average_montly_hours &le; 237.0<br/>entropy = 0.469<br/>samples = 10<br/>value = [9, 1]>, fillcolor="#e88f4f"] ;
19 -> 41 ;
42 [label=<entropy = 0.0<br/>samples = 8<br/>value = [8, 0]>, fillcolor="#e58139"] ;
41 -> 42 ;
43 [label=<department_numerical &le; 3.5<br/>entropy = 1.0<br/>samples = 2<br/>value = [1, 1]>, fillcolor="#ffffff"] ;
41 -> 43 ;
44 [label=<entropy = 0.0<br/>samples = 1<br/>value = [1, 0]>, fillcolor="#e58139"] ;
43 -> 44 ;
45 [label=<entropy = 0.0<br/>samples = 1<br/>value = [0, 1]>, fillcolor="#399de5"] ;
43 -> 45 ;
46 [label=<average_montly_hours &le; 280.0<br/>entropy = 0.327<br/>samples = 100<br/>value = [94, 6]>, fillcolor="#e78946"] ;
2 -> 46 ;
47 [label=<last_evaluation &le; 0.775<br/>entropy = 0.201<br/>samples = 96<br/>value = [93, 3]>, fillcolor="#e6853f"] ;
46 -> 47 ;
48 [label=<entropy = 0.0<br/>samples = 63<br/>value = [63, 0]>, fillcolor="#e58139"] ;
47 -> 48 ;
49 [label=<last_evaluation &le; 0.785<br/>entropy = 0.439<br/>samples = 33<br/>value = [30, 3]>, fillcolor="#e88e4d"] ;
47 -> 49 ;
50 [label=<entropy = 0.0<br/>samples = 2<br/>value = [0, 2]>, fillcolor="#399de5"] ;
49 -> 50 ;
51 [label=<satisfaction_level &le; 0.455<br/>entropy = 0.206<br/>samples = 31<br/>value = [30, 1]>, fillcolor="#e68540"] ;
49 -> 51 ;
52 [label=<entropy = 0.0<br/>samples = 28<br/>value = [28, 0]>, fillcolor="#e58139"] ;
51 -> 52 ;
53 [label=<average_montly_hours &le; 200.5<br/>entropy = 0.918<br/>samples = 3<br/>value = [2, 1]>, fillcolor="#f2c09c"] ;
51 -> 53 ;
54 [label=<entropy = 0.0<br/>samples = 2<br/>value = [2, 0]>, fillcolor="#e58139"] ;
53 -> 54 ;
55 [label=<entropy = 0.0<br/>samples = 1<br/>value = [0, 1]>, fillcolor="#399de5"] ;
53 -> 55 ;
56 [label=<last_evaluation &le; 0.76<br/>entropy = 0.811<br/>samples = 4<br/>value = [1, 3]>, fillcolor="#7bbeee"] ;
46 -> 56 ;
57 [label=<entropy = 0.0<br/>samples = 3<br/>value = [0, 3]>, fillcolor="#399de5"] ;
56 -> 57 ;
58 [label=<entropy = 0.0<br/>samples = 1<br/>value = [1, 0]>, fillcolor="#e58139"] ;
56 -> 58 ;
59 [label=<satisfaction_level &le; 0.115<br/>entropy = 0.971<br/>samples = 1676<br/>value = [1006, 670]>, fillcolor="#f6d5bd"] ;
1 -> 59 ;
60 [label=<entropy = 0.0<br/>samples = 590<br/>value = [0, 590]>, fillcolor="#399de5"] ;
59 -> 60 ;
61 [label=<number_project &le; 6.5<br/>entropy = 0.379<br/>samples = 1086<br/>value = [1006, 80]>, fillcolor="#e78b49"] ;
59 -> 61 ;
62 [label=<average_montly_hours &le; 290.0<br/>entropy = 0.347<br/>samples = 1076<br/>value = [1006, 70]>, fillcolor="#e78a47"] ;
61 -> 62 ;
63 [label=<average_montly_hours &le; 131.5<br/>entropy = 0.323<br/>samples = 1069<br/>value = [1006, 63]>, fillcolor="#e78945"] ;
62 -> 63 ;
64 [label=<entropy = 0.0<br/>samples = 136<br/>value = [136, 0]>, fillcolor="#e58139"] ;
63 -> 64 ;
65 [label=<average_montly_hours &le; 141.5<br/>entropy = 0.357<br/>samples = 933<br/>value = [870, 63]>, fillcolor="#e78a47"] ;
63 -> 65 ;
66 [label=<number_project &le; 3.5<br/>entropy = 0.866<br/>samples = 59<br/>value = [42, 17]>, fillcolor="#f0b489"] ;
65 -> 66 ;
67 [label=<entropy = 0.0<br/>samples = 17<br/>value = [17, 0]>, fillcolor="#e58139"] ;
66 -> 67 ;
68 [label=<satisfaction_level &le; 0.305<br/>entropy = 0.974<br/>samples = 42<br/>value = [25, 17]>, fillcolor="#f7d7c0"] ;
66 -> 68 ;
69 [label=<satisfaction_level &le; 0.205<br/>entropy = 0.629<br/>samples = 19<br/>value = [16, 3]>, fillcolor="#ea995e"] ;
68 -> 69 ;
70 [label=<Work_accident &le; 0.5<br/>entropy = 0.985<br/>samples = 7<br/>value = [4, 3]>, fillcolor="#f8e0ce"] ;
69 -> 70 ;
71 [label=<entropy = 0.0<br/>samples = 3<br/>value = [0, 3]>, fillcolor="#399de5"] ;
70 -> 71 ;
72 [label=<entropy = 0.0<br/>samples = 4<br/>value = [4, 0]>, fillcolor="#e58139"] ;
70 -> 72 ;
73 [label=<entropy = 0.0<br/>samples = 12<br/>value = [12, 0]>, fillcolor="#e58139"] ;
69 -> 73 ;
74 [label=<department_numerical &le; 6.5<br/>entropy = 0.966<br/>samples = 23<br/>value = [9, 14]>, fillcolor="#b8dcf6"] ;
68 -> 74 ;
75 [label=<last_evaluation &le; 0.57<br/>entropy = 0.592<br/>samples = 7<br/>value = [6, 1]>, fillcolor="#e9965a"] ;
74 -> 75 ;
76 [label=<average_montly_hours &le; 134.5<br/>entropy = 1.0<br/>samples = 2<br/>value = [1, 1]>, fillcolor="#ffffff"] ;
75 -> 76 ;
77 [label=<entropy = 0.0<br/>samples = 1<br/>value = [0, 1]>, fillcolor="#399de5"] ;
76 -> 77 ;
78 [label=<entropy = 0.0<br/>samples = 1<br/>value = [1, 0]>, fillcolor="#e58139"] ;
76 -> 78 ;
79 [label=<entropy = 0.0<br/>samples = 5<br/>value = [5, 0]>, fillcolor="#e58139"] ;
75 -> 79 ;
80 [label=<last_evaluation &le; 0.5<br/>entropy = 0.696<br/>samples = 16<br/>value = [3, 13]>, fillcolor="#67b4eb"] ;
74 -> 80 ;
81 [label=<entropy = 0.0<br/>samples = 2<br/>value = [2, 0]>, fillcolor="#e58139"] ;
80 -> 81 ;
82 [label=<time_spend_company &le; 4.5<br/>entropy = 0.371<br/>samples = 14<br/>value = [1, 13]>, fillcolor="#48a5e7"] ;
80 -> 82 ;
83 [label=<time_spend_company &le; 3.0<br/>entropy = 0.722<br/>samples = 5<br/>value = [1, 4]>, fillcolor="#6ab6ec"] ;
82 -> 83 ;
84 [label=<entropy = 0.0<br/>samples = 3<br/>value = [0, 3]>, fillcolor="#399de5"] ;
83 -> 84 ;
85 [label=<satisfaction_level &le; 0.36<br/>entropy = 1.0<br/>samples = 2<br/>value = [1, 1]>, fillcolor="#ffffff"] ;
83 -> 85 ;
86 [label=<entropy = 0.0<br/>samples = 1<br/>value = [1, 0]>, fillcolor="#e58139"] ;
85 -> 86 ;
87 [label=<entropy = 0.0<br/>samples = 1<br/>value = [0, 1]>, fillcolor="#399de5"] ;
85 -> 87 ;
88 [label=<entropy = 0.0<br/>samples = 9<br/>value = [0, 9]>, fillcolor="#399de5"] ;
82 -> 88 ;
89 [label=<time_spend_company &le; 5.5<br/>entropy = 0.297<br/>samples = 874<br/>value = [828, 46]>, fillcolor="#e68844"] ;
65 -> 89 ;
90 [label=<last_evaluation &le; 0.995<br/>entropy = 0.351<br/>samples = 696<br/>value = [650, 46]>, fillcolor="#e78a47"] ;
89 -> 90 ;
91 [label=<last_evaluation &le; 0.445<br/>entropy = 0.327<br/>samples = 684<br/>value = [643, 41]>, fillcolor="#e78946"] ;
90 -> 91 ;
92 [label=<entropy = 0.0<br/>samples = 60<br/>value = [60, 0]>, fillcolor="#e58139"] ;
91 -> 92 ;
93 [label=<last_evaluation &le; 0.465<br/>entropy = 0.35<br/>samples = 624<br/>value = [583, 41]>, fillcolor="#e78a47"] ;
91 -> 93 ;
94 [label=<average_montly_hours &le; 222.5<br/>entropy = 0.852<br/>samples = 18<br/>value = [13, 5]>, fillcolor="#efb185"] ;
93 -> 94 ;
95 [label=<average_montly_hours &le; 208.0<br/>entropy = 0.991<br/>samples = 9<br/>value = [4, 5]>, fillcolor="#d7ebfa"] ;
94 -> 95 ;
96 [label=<entropy = 0.0<br/>samples = 4<br/>value = [4, 0]>, fillcolor="#e58139"] ;
95 -> 96 ;
97 [label=<entropy = 0.0<br/>samples = 5<br/>value = [0, 5]>, fillcolor="#399de5"] ;
95 -> 97 ;
98 [label=<entropy = 0.0<br/>samples = 9<br/>value = [9, 0]>, fillcolor="#e58139"] ;
94 -> 98 ;
99 [label=<last_evaluation &le; 0.525<br/>entropy = 0.325<br/>samples = 606<br/>value = [570, 36]>, fillcolor="#e78946"] ;
93 -> 99 ;
100 [label=<entropy = 0.0<br/>samples = 73<br/>value = [73, 0]>, fillcolor="#e58139"] ;
99 -> 100 ;
101 [label=<satisfaction_level &le; 0.295<br/>entropy = 0.357<br/>samples = 533<br/>value = [497, 36]>, fillcolor="#e78a47"] ;
99 -> 101 ;
102 [label=<satisfaction_level &le; 0.175<br/>entropy = 0.26<br/>samples = 365<br/>value = [349, 16]>, fillcolor="#e68742"] ;
101 -> 102 ;
103 [label=<last_evaluation &le; 0.845<br/>entropy = 0.469<br/>samples = 140<br/>value = [126, 14]>, fillcolor="#e88f4f"] ;
102 -> 103 ;
104 [label=<last_evaluation &le; 0.835<br/>entropy = 0.577<br/>samples = 102<br/>value = [88, 14]>, fillcolor="#e99558"] ;
103 -> 104 ;
105 [label=<satisfaction_level &le; 0.145<br/>entropy = 0.514<br/>samples = 96<br/>value = [85, 11]>, fillcolor="#e89153"] ;
104 -> 105 ;
106 [label=<average_montly_hours &le; 276.5<br/>entropy = 0.742<br/>samples = 38<br/>value = [30, 8]>, fillcolor="#eca36e"] ;
105 -> 106 ;
107 [label=<average_montly_hours &le; 159.0<br/>entropy = 0.65<br/>samples = 36<br/>value = [30, 6]>, fillcolor="#ea9a61"] ;
106 -> 107 ;
108 [label=<last_evaluation &le; 0.64<br/>entropy = 1.0<br/>samples = 8<br/>value = [4, 4]>, fillcolor="#ffffff"] ;
107 -> 108 ;
109 [label=<entropy = 0.0<br/>samples = 3<br/>value = [0, 3]>, fillcolor="#399de5"] ;
108 -> 109 ;
110 [label=<time_spend_company &le; 3.0<br/>entropy = 0.722<br/>samples = 5<br/>value = [4, 1]>, fillcolor="#eca06a"] ;
108 -> 110 ;
111 [label=<entropy = 0.0<br/>samples = 1<br/>value = [0, 1]>, fillcolor="#399de5"] ;
110 -> 111 ;
112 [label=<entropy = 0.0<br/>samples = 4<br/>value = [4, 0]>, fillcolor="#e58139"] ;
110 -> 112 ;
113 [label=<salary_numerical &le; 1.5<br/>entropy = 0.371<br/>samples = 28<br/>value = [26, 2]>, fillcolor="#e78b48"] ;
107 -> 113 ;
114 [label=<entropy = 0.0<br/>samples = 14<br/>value = [14, 0]>, fillcolor="#e58139"] ;
113 -> 114 ;
115 [label=<department_numerical &le; 2.0<br/>entropy = 0.592<br/>samples = 14<br/>value = [12, 2]>, fillcolor="#e9965a"] ;
113 -> 115 ;
116 [label=<entropy = 0.0<br/>samples = 1<br/>value = [0, 1]>, fillcolor="#399de5"] ;
115 -> 116 ;
117 [label=<time_spend_company &le; 3.5<br/>entropy = 0.391<br/>samples = 13<br/>value = [12, 1]>, fillcolor="#e78c49"] ;
115 -> 117 ;
118 [label=<average_montly_hours &le; 246.5<br/>entropy = 0.811<br/>samples = 4<br/>value = [3, 1]>, fillcolor="#eeab7b"] ;
117 -> 118 ;
119 [label=<entropy = 0.0<br/>samples = 1<br/>value = [0, 1]>, fillcolor="#399de5"] ;
118 -> 119 ;
120 [label=<entropy = 0.0<br/>samples = 3<br/>value = [3, 0]>, fillcolor="#e58139"] ;
118 -> 120 ;
121 [label=<entropy = 0.0<br/>samples = 9<br/>value = [9, 0]>, fillcolor="#e58139"] ;
117 -> 121 ;
122 [label=<entropy = 0.0<br/>samples = 2<br/>value = [0, 2]>, fillcolor="#399de5"] ;
106 -> 122 ;
123 [label=<number_project &le; 4.5<br/>entropy = 0.294<br/>samples = 58<br/>value = [55, 3]>, fillcolor="#e68844"] ;
105 -> 123 ;
124 [label=<average_montly_hours &le; 256.0<br/>entropy = 0.491<br/>samples = 28<br/>value = [25, 3]>, fillcolor="#e89051"] ;
123 -> 124 ;
125 [label=<satisfaction_level &le; 0.165<br/>entropy = 0.25<br/>samples = 24<br/>value = [23, 1]>, fillcolor="#e68642"] ;
124 -> 125 ;
126 [label=<entropy = 0.0<br/>samples = 17<br/>value = [17, 0]>, fillcolor="#e58139"] ;
125 -> 126 ;
127 [label=<number_project &le; 3.5<br/>entropy = 0.592<br/>samples = 7<br/>value = [6, 1]>, fillcolor="#e9965a"] ;
125 -> 127 ;
128 [label=<average_montly_hours &le; 214.5<br/>entropy = 1.0<br/>samples = 2<br/>value = [1, 1]>, fillcolor="#ffffff"] ;
127 -> 128 ;
129 [label=<entropy = 0.0<br/>samples = 1<br/>value = [0, 1]>, fillcolor="#399de5"] ;
128 -> 129 ;
130 [label=<entropy = 0.0<br/>samples = 1<br/>value = [1, 0]>, fillcolor="#e58139"] ;
128 -> 130 ;
131 [label=<entropy = 0.0<br/>samples = 5<br/>value = [5, 0]>, fillcolor="#e58139"] ;
127 -> 131 ;
132 [label=<last_evaluation &le; 0.69<br/>entropy = 1.0<br/>samples = 4<br/>value = [2, 2]>, fillcolor="#ffffff"] ;
124 -> 132 ;
133 [label=<entropy = 0.0<br/>samples = 2<br/>value = [0, 2]>, fillcolor="#399de5"] ;
132 -> 133 ;
134 [label=<entropy = 0.0<br/>samples = 2<br/>value = [2, 0]>, fillcolor="#e58139"] ;
132 -> 134 ;
135 [label=<entropy = 0.0<br/>samples = 30<br/>value = [30, 0]>, fillcolor="#e58139"] ;
123 -> 135 ;
136 [label=<satisfaction_level &le; 0.16<br/>entropy = 1.0<br/>samples = 6<br/>value = [3, 3]>, fillcolor="#ffffff"] ;
104 -> 136 ;
137 [label=<entropy = 0.0<br/>samples = 3<br/>value = [3, 0]>, fillcolor="#e58139"] ;
136 -> 137 ;
138 [label=<entropy = 0.0<br/>samples = 3<br/>value = [0, 3]>, fillcolor="#399de5"] ;
136 -> 138 ;
139 [label=<entropy = 0.0<br/>samples = 38<br/>value = [38, 0]>, fillcolor="#e58139"] ;
103 -> 139 ;
140 [label=<average_montly_hours &le; 280.5<br/>entropy = 0.073<br/>samples = 225<br/>value = [223, 2]>, fillcolor="#e5823b"] ;
102 -> 140 ;
141 [label=<average_montly_hours &le; 168.5<br/>entropy = 0.042<br/>samples = 218<br/>value = [217, 1]>, fillcolor="#e5823a"] ;
140 -> 141 ;
142 [label=<average_montly_hours &le; 167.5<br/>entropy = 0.146<br/>samples = 48<br/>value = [47, 1]>, fillcolor="#e6843d"] ;
141 -> 142 ;
143 [label=<entropy = 0.0<br/>samples = 46<br/>value = [46, 0]>, fillcolor="#e58139"] ;
142 -> 143 ;
144 [label=<time_spend_company &le; 3.5<br/>entropy = 1.0<br/>samples = 2<br/>value = [1, 1]>, fillcolor="#ffffff"] ;
142 -> 144 ;
145 [label=<entropy = 0.0<br/>samples = 1<br/>value = [1, 0]>, fillcolor="#e58139"] ;
144 -> 145 ;
146 [label=<entropy = 0.0<br/>samples = 1<br/>value = [0, 1]>, fillcolor="#399de5"] ;
144 -> 146 ;
147 [label=<entropy = 0.0<br/>samples = 170<br/>value = [170, 0]>, fillcolor="#e58139"] ;
141 -> 147 ;
148 [label=<last_evaluation &le; 0.72<br/>entropy = 0.592<br/>samples = 7<br/>value = [6, 1]>, fillcolor="#e9965a"] ;
140 -> 148 ;
149 [label=<department_numerical &le; 6.5<br/>entropy = 1.0<br/>samples = 2<br/>value = [1, 1]>, fillcolor="#ffffff"] ;
148 -> 149 ;
150 [label=<entropy = 0.0<br/>samples = 1<br/>value = [1, 0]>, fillcolor="#e58139"] ;
149 -> 150 ;
151 [label=<entropy = 0.0<br/>samples = 1<br/>value = [0, 1]>, fillcolor="#399de5"] ;
149 -> 151 ;
152 [label=<entropy = 0.0<br/>samples = 5<br/>value = [5, 0]>, fillcolor="#e58139"] ;
148 -> 152 ;
153 [label=<last_evaluation &le; 0.865<br/>entropy = 0.527<br/>samples = 168<br/>value = [148, 20]>, fillcolor="#e99254"] ;
101 -> 153 ;
154 [label=<last_evaluation &le; 0.535<br/>entropy = 0.378<br/>samples = 123<br/>value = [114, 9]>, fillcolor="#e78b49"] ;
153 -> 154 ;
155 [label=<average_montly_hours &le; 190.0<br/>entropy = 0.971<br/>samples = 5<br/>value = [2, 3]>, fillcolor="#bddef6"] ;
154 -> 155 ;
156 [label=<entropy = 0.0<br/>samples = 2<br/>value = [2, 0]>, fillcolor="#e58139"] ;
155 -> 156 ;
157 [label=<entropy = 0.0<br/>samples = 3<br/>value = [0, 3]>, fillcolor="#399de5"] ;
155 -> 157 ;
158 [label=<average_montly_hours &le; 204.5<br/>entropy = 0.29<br/>samples = 118<br/>value = [112, 6]>, fillcolor="#e68844"] ;
154 -> 158 ;
159 [label=<average_montly_hours &le; 149.5<br/>entropy = 0.108<br/>samples = 70<br/>value = [69, 1]>, fillcolor="#e5833c"] ;
158 -> 159 ;
160 [label=<last_evaluation &le; 0.765<br/>entropy = 0.544<br/>samples = 8<br/>value = [7, 1]>, fillcolor="#e99355"] ;
159 -> 160 ;
161 [label=<entropy = 0.0<br/>samples = 7<br/>value = [7, 0]>, fillcolor="#e58139"] ;
160 -> 161 ;
162 [label=<entropy = 0.0<br/>samples = 1<br/>value = [0, 1]>, fillcolor="#399de5"] ;
160 -> 162 ;
163 [label=<entropy = 0.0<br/>samples = 62<br/>value = [62, 0]>, fillcolor="#e58139"] ;
159 -> 163 ;
164 [label=<average_montly_hours &le; 238.5<br/>entropy = 0.482<br/>samples = 48<br/>value = [43, 5]>, fillcolor="#e89050"] ;
158 -> 164 ;
165 [label=<last_evaluation &le; 0.755<br/>entropy = 0.773<br/>samples = 22<br/>value = [17, 5]>, fillcolor="#eda673"] ;
164 -> 165 ;
166 [label=<average_montly_hours &le; 233.0<br/>entropy = 0.94<br/>samples = 14<br/>value = [9, 5]>, fillcolor="#f3c7a7"] ;
165 -> 166 ;
167 [label=<satisfaction_level &le; 0.365<br/>entropy = 0.811<br/>samples = 12<br/>value = [9, 3]>, fillcolor="#eeab7b"] ;
166 -> 167 ;
168 [label=<entropy = 0.0<br/>samples = 5<br/>value = [5, 0]>, fillcolor="#e58139"] ;
167 -> 168 ;
169 [label=<satisfaction_level &le; 0.43<br/>entropy = 0.985<br/>samples = 7<br/>value = [4, 3]>, fillcolor="#f8e0ce"] ;
167 -> 169 ;
170 [label=<entropy = 0.0<br/>samples = 2<br/>value = [0, 2]>, fillcolor="#399de5"] ;
169 -> 170 ;
171 [label=<satisfaction_level &le; 0.455<br/>entropy = 0.722<br/>samples = 5<br/>value = [4, 1]>, fillcolor="#eca06a"] ;
169 -> 171 ;
172 [label=<entropy = 0.0<br/>samples = 3<br/>value = [3, 0]>, fillcolor="#e58139"] ;
171 -> 172 ;
173 [label=<last_evaluation &le; 0.64<br/>entropy = 1.0<br/>samples = 2<br/>value = [1, 1]>, fillcolor="#ffffff"] ;
171 -> 173 ;
174 [label=<entropy = 0.0<br/>samples = 1<br/>value = [0, 1]>, fillcolor="#399de5"] ;
173 -> 174 ;
175 [label=<entropy = 0.0<br/>samples = 1<br/>value = [1, 0]>, fillcolor="#e58139"] ;
173 -> 175 ;
176 [label=<entropy = 0.0<br/>samples = 2<br/>value = [0, 2]>, fillcolor="#399de5"] ;
166 -> 176 ;
177 [label=<entropy = 0.0<br/>samples = 8<br/>value = [8, 0]>, fillcolor="#e58139"] ;
165 -> 177 ;
178 [label=<entropy = 0.0<br/>samples = 26<br/>value = [26, 0]>, fillcolor="#e58139"] ;
164 -> 178 ;
179 [label=<satisfaction_level &le; 0.385<br/>entropy = 0.802<br/>samples = 45<br/>value = [34, 11]>, fillcolor="#edaa79"] ;
153 -> 179 ;
180 [label=<department_numerical &le; 5.5<br/>entropy = 0.967<br/>samples = 28<br/>value = [17, 11]>, fillcolor="#f6d3b9"] ;
179 -> 180 ;
181 [label=<average_montly_hours &le; 252.5<br/>entropy = 0.414<br/>samples = 12<br/>value = [11, 1]>, fillcolor="#e78c4b"] ;
180 -> 181 ;
182 [label=<entropy = 0.0<br/>samples = 10<br/>value = [10, 0]>, fillcolor="#e58139"] ;
181 -> 182 ;
183 [label=<department_numerical &le; 0.5<br/>entropy = 1.0<br/>samples = 2<br/>value = [1, 1]>, fillcolor="#ffffff"] ;
181 -> 183 ;
184 [label=<entropy = 0.0<br/>samples = 1<br/>value = [1, 0]>, fillcolor="#e58139"] ;
183 -> 184 ;
185 [label=<entropy = 0.0<br/>samples = 1<br/>value = [0, 1]>, fillcolor="#399de5"] ;
183 -> 185 ;
186 [label=<average_montly_hours &le; 237.0<br/>entropy = 0.954<br/>samples = 16<br/>value = [6, 10]>, fillcolor="#b0d8f5"] ;
180 -> 186 ;
187 [label=<satisfaction_level &le; 0.355<br/>entropy = 0.65<br/>samples = 12<br/>value = [2, 10]>, fillcolor="#61b1ea"] ;
186 -> 187 ;
188 [label=<entropy = 0.0<br/>samples = 9<br/>value = [0, 9]>, fillcolor="#399de5"] ;
187 -> 188 ;
189 [label=<department_numerical &le; 8.5<br/>entropy = 0.918<br/>samples = 3<br/>value = [2, 1]>, fillcolor="#f2c09c"] ;
187 -> 189 ;
190 [label=<entropy = 0.0<br/>samples = 2<br/>value = [2, 0]>, fillcolor="#e58139"] ;
189 -> 190 ;
191 [label=<entropy = 0.0<br/>samples = 1<br/>value = [0, 1]>, fillcolor="#399de5"] ;
189 -> 191 ;
192 [label=<entropy = 0.0<br/>samples = 4<br/>value = [4, 0]>, fillcolor="#e58139"] ;
186 -> 192 ;
193 [label=<entropy = 0.0<br/>samples = 17<br/>value = [17, 0]>, fillcolor="#e58139"] ;
179 -> 193 ;
194 [label=<number_project &le; 4.5<br/>entropy = 0.98<br/>samples = 12<br/>value = [7, 5]>, fillcolor="#f8dbc6"] ;
90 -> 194 ;
195 [label=<average_montly_hours &le; 190.0<br/>entropy = 0.863<br/>samples = 7<br/>value = [2, 5]>, fillcolor="#88c4ef"] ;
194 -> 195 ;
196 [label=<entropy = 0.0<br/>samples = 2<br/>value = [2, 0]>, fillcolor="#e58139"] ;
195 -> 196 ;
197 [label=<entropy = 0.0<br/>samples = 5<br/>value = [0, 5]>, fillcolor="#399de5"] ;
195 -> 197 ;
198 [label=<entropy = 0.0<br/>samples = 5<br/>value = [5, 0]>, fillcolor="#e58139"] ;
194 -> 198 ;
199 [label=<entropy = 0.0<br/>samples = 178<br/>value = [178, 0]>, fillcolor="#e58139"] ;
89 -> 199 ;
200 [label=<entropy = 0.0<br/>samples = 7<br/>value = [0, 7]>, fillcolor="#399de5"] ;
62 -> 200 ;
201 [label=<entropy = 0.0<br/>samples = 10<br/>value = [0, 10]>, fillcolor="#399de5"] ;
61 -> 201 ;
202 [label=<time_spend_company &le; 4.5<br/>entropy = 0.461<br/>samples = 7570<br/>value = [6831, 739]>, fillcolor="#e88f4e"] ;
0 -> 202 [labeldistance=2.5, labelangle=-45, headlabel="False"] ;
203 [label=<average_montly_hours &le; 290.5<br/>entropy = 0.102<br/>samples = 6170<br/>value = [6088, 82]>, fillcolor="#e5833c"] ;
202 -> 203 ;
204 [label=<number_project &le; 5.5<br/>entropy = 0.095<br/>samples = 6163<br/>value = [6088, 75]>, fillcolor="#e5833b"] ;
203 -> 204 ;
205 [label=<time_spend_company &le; 3.5<br/>entropy = 0.083<br/>samples = 6058<br/>value = [5995, 63]>, fillcolor="#e5823b"] ;
204 -> 205 ;
206 [label=<satisfaction_level &le; 0.905<br/>entropy = 0.06<br/>samples = 5118<br/>value = [5082, 36]>, fillcolor="#e5823a"] ;
205 -> 206 ;
207 [label=<number_project &le; 2.5<br/>entropy = 0.071<br/>samples = 4233<br/>value = [4197, 36]>, fillcolor="#e5823b"] ;
206 -> 207 ;
208 [label=<average_montly_hours &le; 197.0<br/>entropy = 0.206<br/>samples = 247<br/>value = [239, 8]>, fillcolor="#e68540"] ;
207 -> 208 ;
209 [label=<entropy = 0.0<br/>samples = 131<br/>value = [131, 0]>, fillcolor="#e58139"] ;
208 -> 209 ;
210 [label=<department_numerical &le; 7.5<br/>entropy = 0.362<br/>samples = 116<br/>value = [108, 8]>, fillcolor="#e78a48"] ;
208 -> 210 ;
211 [label=<last_evaluation &le; 0.48<br/>entropy = 0.099<br/>samples = 78<br/>value = [77, 1]>, fillcolor="#e5833c"] ;
210 -> 211 ;
212 [label=<last_evaluation &le; 0.455<br/>entropy = 0.592<br/>samples = 7<br/>value = [6, 1]>, fillcolor="#e9965a"] ;
211 -> 212 ;
213 [label=<entropy = 0.0<br/>samples = 6<br/>value = [6, 0]>, fillcolor="#e58139"] ;
212 -> 213 ;
214 [label=<entropy = 0.0<br/>samples = 1<br/>value = [0, 1]>, fillcolor="#399de5"] ;
212 -> 214 ;
215 [label=<entropy = 0.0<br/>samples = 71<br/>value = [71, 0]>, fillcolor="#e58139"] ;
211 -> 215 ;
216 [label=<average_montly_hours &le; 211.5<br/>entropy = 0.689<br/>samples = 38<br/>value = [31, 7]>, fillcolor="#eb9d66"] ;
210 -> 216 ;
217 [label=<Work_accident &le; 0.5<br/>entropy = 0.65<br/>samples = 6<br/>value = [1, 5]>, fillcolor="#61b1ea"] ;
216 -> 217 ;
218 [label=<entropy = 0.0<br/>samples = 5<br/>value = [0, 5]>, fillcolor="#399de5"] ;
217 -> 218 ;
219 [label=<entropy = 0.0<br/>samples = 1<br/>value = [1, 0]>, fillcolor="#e58139"] ;
217 -> 219 ;
220 [label=<average_montly_hours &le; 253.5<br/>entropy = 0.337<br/>samples = 32<br/>value = [30, 2]>, fillcolor="#e78946"] ;
216 -> 220 ;
221 [label=<entropy = 0.0<br/>samples = 21<br/>value = [21, 0]>, fillcolor="#e58139"] ;
220 -> 221 ;
222 [label=<average_montly_hours &le; 257.5<br/>entropy = 0.684<br/>samples = 11<br/>value = [9, 2]>, fillcolor="#eb9d65"] ;
220 -> 222 ;
223 [label=<entropy = 0.0<br/>samples = 2<br/>value = [0, 2]>, fillcolor="#399de5"] ;
222 -> 223 ;
224 [label=<entropy = 0.0<br/>samples = 9<br/>value = [9, 0]>, fillcolor="#e58139"] ;
222 -> 224 ;
225 [label=<salary_numerical &le; 2.5<br/>entropy = 0.06<br/>samples = 3986<br/>value = [3958, 28]>, fillcolor="#e5823a"] ;
207 -> 225 ;
226 [label=<Work_accident &le; 0.5<br/>entropy = 0.066<br/>samples = 3605<br/>value = [3577, 28]>, fillcolor="#e5823b"] ;
225 -> 226 ;
227 [label=<satisfaction_level &le; 0.545<br/>entropy = 0.074<br/>samples = 3006<br/>value = [2979, 27]>, fillcolor="#e5823b"] ;
226 -> 227 ;
228 [label=<last_evaluation &le; 0.725<br/>entropy = 0.131<br/>samples = 494<br/>value = [485, 9]>, fillcolor="#e5833d"] ;
227 -> 228 ;
229 [label=<average_montly_hours &le; 259.5<br/>entropy = 0.036<br/>samples = 265<br/>value = [264, 1]>, fillcolor="#e5813a"] ;
228 -> 229 ;
230 [label=<entropy = 0.0<br/>samples = 238<br/>value = [238, 0]>, fillcolor="#e58139"] ;
229 -> 230 ;
231 [label=<average_montly_hours &le; 260.5<br/>entropy = 0.229<br/>samples = 27<br/>value = [26, 1]>, fillcolor="#e68641"] ;
229 -> 231 ;
232 [label=<entropy = 0.0<br/>samples = 1<br/>value = [0, 1]>, fillcolor="#399de5"] ;
231 -> 232 ;
233 [label=<entropy = 0.0<br/>samples = 26<br/>value = [26, 0]>, fillcolor="#e58139"] ;
231 -> 233 ;
234 [label=<average_montly_hours &le; 164.5<br/>entropy = 0.219<br/>samples = 229<br/>value = [221, 8]>, fillcolor="#e68640"] ;
228 -> 234 ;
235 [label=<average_montly_hours &le; 163.5<br/>entropy = 0.485<br/>samples = 57<br/>value = [51, 6]>, fillcolor="#e89050"] ;
234 -> 235 ;
236 [label=<average_montly_hours &le; 139.0<br/>entropy = 0.31<br/>samples = 54<br/>value = [51, 3]>, fillcolor="#e78845"] ;
235 -> 236 ;
237 [label=<department_numerical &le; 2.5<br/>entropy = 0.75<br/>samples = 14<br/>value = [11, 3]>, fillcolor="#eca36f"] ;
236 -> 237 ;
238 [label=<average_montly_hours &le; 132.5<br/>entropy = 0.918<br/>samples = 3<br/>value = [1, 2]>, fillcolor="#9ccef2"] ;
237 -> 238 ;
239 [label=<entropy = 0.0<br/>samples = 1<br/>value = [1, 0]>, fillcolor="#e58139"] ;
238 -> 239 ;
240 [label=<entropy = 0.0<br/>samples = 2<br/>value = [0, 2]>, fillcolor="#399de5"] ;
238 -> 240 ;
241 [label=<last_evaluation &le; 0.8<br/>entropy = 0.439<br/>samples = 11<br/>value = [10, 1]>, fillcolor="#e88e4d"] ;
237 -> 241 ;
242 [label=<number_project &le; 3.5<br/>entropy = 0.918<br/>samples = 3<br/>value = [2, 1]>, fillcolor="#f2c09c"] ;
241 -> 242 ;
243 [label=<entropy = 0.0<br/>samples = 2<br/>value = [2, 0]>, fillcolor="#e58139"] ;
242 -> 243 ;
244 [label=<entropy = 0.0<br/>samples = 1<br/>value = [0, 1]>, fillcolor="#399de5"] ;
242 -> 244 ;
245 [label=<entropy = 0.0<br/>samples = 8<br/>value = [8, 0]>, fillcolor="#e58139"] ;
241 -> 245 ;
246 [label=<entropy = 0.0<br/>samples = 40<br/>value = [40, 0]>, fillcolor="#e58139"] ;
236 -> 246 ;
247 [label=<entropy = 0.0<br/>samples = 3<br/>value = [0, 3]>, fillcolor="#399de5"] ;
235 -> 247 ;
248 [label=<satisfaction_level &le; 0.495<br/>entropy = 0.091<br/>samples = 172<br/>value = [170, 2]>, fillcolor="#e5823b"] ;
234 -> 248 ;
249 [label=<last_evaluation &le; 0.745<br/>entropy = 0.286<br/>samples = 40<br/>value = [38, 2]>, fillcolor="#e68843"] ;
248 -> 249 ;
250 [label=<entropy = 0.0<br/>samples = 1<br/>value = [0, 1]>, fillcolor="#399de5"] ;
249 -> 250 ;
251 [label=<average_montly_hours &le; 238.5<br/>entropy = 0.172<br/>samples = 39<br/>value = [38, 1]>, fillcolor="#e6843e"] ;
249 -> 251 ;
252 [label=<entropy = 0.0<br/>samples = 26<br/>value = [26, 0]>, fillcolor="#e58139"] ;
251 -> 252 ;
253 [label=<average_montly_hours &le; 241.5<br/>entropy = 0.391<br/>samples = 13<br/>value = [12, 1]>, fillcolor="#e78c49"] ;
251 -> 253 ;
254 [label=<entropy = 0.0<br/>samples = 1<br/>value = [0, 1]>, fillcolor="#399de5"] ;
253 -> 254 ;
255 [label=<entropy = 0.0<br/>samples = 12<br/>value = [12, 0]>, fillcolor="#e58139"] ;
253 -> 255 ;
256 [label=<entropy = 0.0<br/>samples = 132<br/>value = [132, 0]>, fillcolor="#e58139"] ;
248 -> 256 ;
257 [label=<department_numerical &le; 2.5<br/>entropy = 0.061<br/>samples = 2512<br/>value = [2494, 18]>, fillcolor="#e5823a"] ;
227 -> 257 ;
258 [label=<entropy = 0.0<br/>samples = 478<br/>value = [478, 0]>, fillcolor="#e58139"] ;
257 -> 258 ;
259 [label=<satisfaction_level &le; 0.715<br/>entropy = 0.073<br/>samples = 2034<br/>value = [2016, 18]>, fillcolor="#e5823b"] ;
257 -> 259 ;
260 [label=<department_numerical &le; 3.5<br/>entropy = 0.031<br/>samples = 954<br/>value = [951, 3]>, fillcolor="#e5813a"] ;
259 -> 260 ;
261 [label=<average_montly_hours &le; 237.5<br/>entropy = 0.222<br/>samples = 56<br/>value = [54, 2]>, fillcolor="#e68640"] ;
260 -> 261 ;
262 [label=<entropy = 0.0<br/>samples = 43<br/>value = [43, 0]>, fillcolor="#e58139"] ;
261 -> 262 ;
263 [label=<satisfaction_level &le; 0.6<br/>entropy = 0.619<br/>samples = 13<br/>value = [11, 2]>, fillcolor="#ea985d"] ;
261 -> 263 ;
264 [label=<last_evaluation &le; 0.63<br/>entropy = 0.918<br/>samples = 3<br/>value = [1, 2]>, fillcolor="#9ccef2"] ;
263 -> 264 ;
265 [label=<entropy = 0.0<br/>samples = 2<br/>value = [0, 2]>, fillcolor="#399de5"] ;
264 -> 265 ;
266 [label=<entropy = 0.0<br/>samples = 1<br/>value = [1, 0]>, fillcolor="#e58139"] ;
264 -> 266 ;
267 [label=<entropy = 0.0<br/>samples = 10<br/>value = [10, 0]>, fillcolor="#e58139"] ;
263 -> 267 ;
268 [label=<last_evaluation &le; 0.935<br/>entropy = 0.013<br/>samples = 898<br/>value = [897, 1]>, fillcolor="#e58139"] ;
260 -> 268 ;
269 [label=<entropy = 0.0<br/>samples = 774<br/>value = [774, 0]>, fillcolor="#e58139"] ;
268 -> 269 ;
270 [label=<last_evaluation &le; 0.945<br/>entropy = 0.068<br/>samples = 124<br/>value = [123, 1]>, fillcolor="#e5823b"] ;
268 -> 270 ;
271 [label=<department_numerical &le; 7.5<br/>entropy = 0.297<br/>samples = 19<br/>value = [18, 1]>, fillcolor="#e68844"] ;
270 -> 271 ;
272 [label=<entropy = 0.0<br/>samples = 12<br/>value = [12, 0]>, fillcolor="#e58139"] ;
271 -> 272 ;
273 [label=<department_numerical &le; 8.5<br/>entropy = 0.592<br/>samples = 7<br/>value = [6, 1]>, fillcolor="#e9965a"] ;
271 -> 273 ;
274 [label=<average_montly_hours &le; 169.5<br/>entropy = 1.0<br/>samples = 2<br/>value = [1, 1]>, fillcolor="#ffffff"] ;
273 -> 274 ;
275 [label=<entropy = 0.0<br/>samples = 1<br/>value = [1, 0]>, fillcolor="#e58139"] ;
274 -> 275 ;
276 [label=<entropy = 0.0<br/>samples = 1<br/>value = [0, 1]>, fillcolor="#399de5"] ;
274 -> 276 ;
277 [label=<entropy = 0.0<br/>samples = 5<br/>value = [5, 0]>, fillcolor="#e58139"] ;
273 -> 277 ;
278 [label=<entropy = 0.0<br/>samples = 105<br/>value = [105, 0]>, fillcolor="#e58139"] ;
270 -> 278 ;
279 [label=<average_montly_hours &le; 262.5<br/>entropy = 0.106<br/>samples = 1080<br/>value = [1065, 15]>, fillcolor="#e5833c"] ;
259 -> 279 ;
280 [label=<last_evaluation &le; 0.665<br/>entropy = 0.083<br/>samples = 973<br/>value = [963, 10]>, fillcolor="#e5823b"] ;
279 -> 280 ;
281 [label=<average_montly_hours &le; 226.5<br/>entropy = 0.156<br/>samples = 354<br/>value = [346, 8]>, fillcolor="#e6843e"] ;
280 -> 281 ;
282 [label=<average_montly_hours &le; 225.5<br/>entropy = 0.199<br/>samples = 259<br/>value = [251, 8]>, fillcolor="#e6853f"] ;
281 -> 282 ;
283 [label=<satisfaction_level &le; 0.795<br/>entropy = 0.16<br/>samples = 257<br/>value = [251, 6]>, fillcolor="#e6843e"] ;
282 -> 283 ;
284 [label=<salary_numerical &le; 1.5<br/>entropy = 0.281<br/>samples = 123<br/>value = [117, 6]>, fillcolor="#e68743"] ;
283 -> 284 ;
285 [label=<department_numerical &le; 7.5<br/>entropy = 0.449<br/>samples = 64<br/>value = [58, 6]>, fillcolor="#e88e4d"] ;
284 -> 285 ;
286 [label=<promotion_last_5years &le; 0.5<br/>entropy = 0.592<br/>samples = 42<br/>value = [36, 6]>, fillcolor="#e9965a"] ;
285 -> 286 ;
287 [label=<department_numerical &le; 6.5<br/>entropy = 0.535<br/>samples = 41<br/>value = [36, 5]>, fillcolor="#e99254"] ;
286 -> 287 ;
288 [label=<entropy = 0.0<br/>samples = 18<br/>value = [18, 0]>, fillcolor="#e58139"] ;
287 -> 288 ;
289 [label=<average_montly_hours &le; 216.5<br/>entropy = 0.755<br/>samples = 23<br/>value = [18, 5]>, fillcolor="#eca470"] ;
287 -> 289 ;
290 [label=<average_montly_hours &le; 211.5<br/>entropy = 0.831<br/>samples = 19<br/>value = [14, 5]>, fillcolor="#eeae80"] ;
289 -> 290 ;
291 [label=<satisfaction_level &le; 0.775<br/>entropy = 0.672<br/>samples = 17<br/>value = [14, 3]>, fillcolor="#eb9c63"] ;
290 -> 291 ;
292 [label=<entropy = 0.0<br/>samples = 10<br/>value = [10, 0]>, fillcolor="#e58139"] ;
291 -> 292 ;
293 [label=<average_montly_hours &le; 165.5<br/>entropy = 0.985<br/>samples = 7<br/>value = [4, 3]>, fillcolor="#f8e0ce"] ;
291 -> 293 ;
294 [label=<average_montly_hours &le; 115.0<br/>entropy = 0.811<br/>samples = 4<br/>value = [1, 3]>, fillcolor="#7bbeee"] ;
293 -> 294 ;
295 [label=<entropy = 0.0<br/>samples = 1<br/>value = [1, 0]>, fillcolor="#e58139"] ;
294 -> 295 ;
296 [label=<entropy = 0.0<br/>samples = 3<br/>value = [0, 3]>, fillcolor="#399de5"] ;
294 -> 296 ;
297 [label=<entropy = 0.0<br/>samples = 3<br/>value = [3, 0]>, fillcolor="#e58139"] ;
293 -> 297 ;
298 [label=<entropy = 0.0<br/>samples = 2<br/>value = [0, 2]>, fillcolor="#399de5"] ;
290 -> 298 ;
299 [label=<entropy = 0.0<br/>samples = 4<br/>value = [4, 0]>, fillcolor="#e58139"] ;
289 -> 299 ;
300 [label=<entropy = 0.0<br/>samples = 1<br/>value = [0, 1]>, fillcolor="#399de5"] ;
286 -> 300 ;
301 [label=<entropy = 0.0<br/>samples = 22<br/>value = [22, 0]>, fillcolor="#e58139"] ;
285 -> 301 ;
302 [label=<entropy = 0.0<br/>samples = 59<br/>value = [59, 0]>, fillcolor="#e58139"] ;
284 -> 302 ;
303 [label=<entropy = 0.0<br/>samples = 134<br/>value = [134, 0]>, fillcolor="#e58139"] ;
283 -> 303 ;
304 [label=<entropy = 0.0<br/>samples = 2<br/>value = [0, 2]>, fillcolor="#399de5"] ;
282 -> 304 ;
305 [label=<entropy = 0.0<br/>samples = 95<br/>value = [95, 0]>, fillcolor="#e58139"] ;
281 -> 305 ;
306 [label=<last_evaluation &le; 0.995<br/>entropy = 0.031<br/>samples = 619<br/>value = [617, 2]>, fillcolor="#e5813a"] ;
280 -> 306 ;
307 [label=<average_montly_hours &le; 221.5<br/>entropy = 0.018<br/>samples = 605<br/>value = [604, 1]>, fillcolor="#e58139"] ;
306 -> 307 ;
308 [label=<entropy = 0.0<br/>samples = 409<br/>value = [409, 0]>, fillcolor="#e58139"] ;
307 -> 308 ;
309 [label=<average_montly_hours &le; 222.5<br/>entropy = 0.046<br/>samples = 196<br/>value = [195, 1]>, fillcolor="#e5823a"] ;
307 -> 309 ;
310 [label=<satisfaction_level &le; 0.795<br/>entropy = 0.65<br/>samples = 6<br/>value = [5, 1]>, fillcolor="#ea9a61"] ;
309 -> 310 ;
311 [label=<entropy = 0.0<br/>samples = 1<br/>value = [0, 1]>, fillcolor="#399de5"] ;
310 -> 311 ;
312 [label=<entropy = 0.0<br/>samples = 5<br/>value = [5, 0]>, fillcolor="#e58139"] ;
310 -> 312 ;
313 [label=<entropy = 0.0<br/>samples = 190<br/>value = [190, 0]>, fillcolor="#e58139"] ;
309 -> 313 ;
314 [label=<satisfaction_level &le; 0.73<br/>entropy = 0.371<br/>samples = 14<br/>value = [13, 1]>, fillcolor="#e78b48"] ;
306 -> 314 ;
315 [label=<entropy = 0.0<br/>samples = 1<br/>value = [0, 1]>, fillcolor="#399de5"] ;
314 -> 315 ;
316 [label=<entropy = 0.0<br/>samples = 13<br/>value = [13, 0]>, fillcolor="#e58139"] ;
314 -> 316 ;
317 [label=<satisfaction_level &le; 0.795<br/>entropy = 0.272<br/>samples = 107<br/>value = [102, 5]>, fillcolor="#e68743"] ;
279 -> 317 ;
318 [label=<entropy = 0.0<br/>samples = 51<br/>value = [51, 0]>, fillcolor="#e58139"] ;
317 -> 318 ;
319 [label=<last_evaluation &le; 0.675<br/>entropy = 0.434<br/>samples = 56<br/>value = [51, 5]>, fillcolor="#e88d4c"] ;
317 -> 319 ;
320 [label=<entropy = 0.0<br/>samples = 29<br/>value = [29, 0]>, fillcolor="#e58139"] ;
319 -> 320 ;
321 [label=<number_project &le; 4.5<br/>entropy = 0.691<br/>samples = 27<br/>value = [22, 5]>, fillcolor="#eb9e66"] ;
319 -> 321 ;
322 [label=<satisfaction_level &le; 0.805<br/>entropy = 0.439<br/>samples = 22<br/>value = [20, 2]>, fillcolor="#e88e4d"] ;
321 -> 322 ;
323 [label=<number_project &le; 3.5<br/>entropy = 0.918<br/>samples = 6<br/>value = [4, 2]>, fillcolor="#f2c09c"] ;
322 -> 323 ;
324 [label=<average_montly_hours &le; 269.5<br/>entropy = 0.918<br/>samples = 3<br/>value = [1, 2]>, fillcolor="#9ccef2"] ;
323 -> 324 ;
325 [label=<entropy = 0.0<br/>samples = 2<br/>value = [0, 2]>, fillcolor="#399de5"] ;
324 -> 325 ;
326 [label=<entropy = 0.0<br/>samples = 1<br/>value = [1, 0]>, fillcolor="#e58139"] ;
324 -> 326 ;
327 [label=<entropy = 0.0<br/>samples = 3<br/>value = [3, 0]>, fillcolor="#e58139"] ;
323 -> 327 ;
328 [label=<entropy = 0.0<br/>samples = 16<br/>value = [16, 0]>, fillcolor="#e58139"] ;
322 -> 328 ;
329 [label=<time_spend_company &le; 2.5<br/>entropy = 0.971<br/>samples = 5<br/>value = [2, 3]>, fillcolor="#bddef6"] ;
321 -> 329 ;
330 [label=<entropy = 0.0<br/>samples = 2<br/>value = [0, 2]>, fillcolor="#399de5"] ;
329 -> 330 ;
331 [label=<last_evaluation &le; 0.86<br/>entropy = 0.918<br/>samples = 3<br/>value = [2, 1]>, fillcolor="#f2c09c"] ;
329 -> 331 ;
332 [label=<entropy = 0.0<br/>samples = 2<br/>value = [2, 0]>, fillcolor="#e58139"] ;
331 -> 332 ;
333 [label=<entropy = 0.0<br/>samples = 1<br/>value = [0, 1]>, fillcolor="#399de5"] ;
331 -> 333 ;
334 [label=<satisfaction_level &le; 0.575<br/>entropy = 0.018<br/>samples = 599<br/>value = [598, 1]>, fillcolor="#e58139"] ;
226 -> 334 ;
335 [label=<satisfaction_level &le; 0.565<br/>entropy = 0.06<br/>samples = 143<br/>value = [142, 1]>, fillcolor="#e5823a"] ;
334 -> 335 ;
336 [label=<entropy = 0.0<br/>samples = 128<br/>value = [128, 0]>, fillcolor="#e58139"] ;
335 -> 336 ;
337 [label=<time_spend_company &le; 2.5<br/>entropy = 0.353<br/>samples = 15<br/>value = [14, 1]>, fillcolor="#e78a47"] ;
335 -> 337 ;
338 [label=<average_montly_hours &le; 217.5<br/>entropy = 0.811<br/>samples = 4<br/>value = [3, 1]>, fillcolor="#eeab7b"] ;
337 -> 338 ;
339 [label=<entropy = 0.0<br/>samples = 3<br/>value = [3, 0]>, fillcolor="#e58139"] ;
338 -> 339 ;
340 [label=<entropy = 0.0<br/>samples = 1<br/>value = [0, 1]>, fillcolor="#399de5"] ;
338 -> 340 ;
341 [label=<entropy = 0.0<br/>samples = 11<br/>value = [11, 0]>, fillcolor="#e58139"] ;
337 -> 341 ;
342 [label=<entropy = 0.0<br/>samples = 456<br/>value = [456, 0]>, fillcolor="#e58139"] ;
334 -> 342 ;
343 [label=<entropy = 0.0<br/>samples = 381<br/>value = [381, 0]>, fillcolor="#e58139"] ;
225 -> 343 ;
344 [label=<entropy = 0.0<br/>samples = 885<br/>value = [885, 0]>, fillcolor="#e58139"] ;
206 -> 344 ;
345 [label=<satisfaction_level &le; 0.905<br/>entropy = 0.188<br/>samples = 940<br/>value = [913, 27]>, fillcolor="#e6853f"] ;
205 -> 345 ;
346 [label=<department_numerical &le; 8.5<br/>entropy = 0.218<br/>samples = 776<br/>value = [749, 27]>, fillcolor="#e68640"] ;
345 -> 346 ;
347 [label=<average_montly_hours &le; 273.5<br/>entropy = 0.163<br/>samples = 629<br/>value = [614, 15]>, fillcolor="#e6843e"] ;
346 -> 347 ;
348 [label=<last_evaluation &le; 0.825<br/>entropy = 0.14<br/>samples = 606<br/>value = [594, 12]>, fillcolor="#e6843d"] ;
347 -> 348 ;
349 [label=<satisfaction_level &le; 0.505<br/>entropy = 0.08<br/>samples = 407<br/>value = [403, 4]>, fillcolor="#e5823b"] ;
348 -> 349 ;
350 [label=<number_project &le; 3.5<br/>entropy = 0.459<br/>samples = 31<br/>value = [28, 3]>, fillcolor="#e88e4e"] ;
349 -> 350 ;
351 [label=<entropy = 0.0<br/>samples = 19<br/>value = [19, 0]>, fillcolor="#e58139"] ;
350 -> 351 ;
352 [label=<salary_numerical &le; 1.5<br/>entropy = 0.811<br/>samples = 12<br/>value = [9, 3]>, fillcolor="#eeab7b"] ;
350 -> 352 ;
353 [label=<average_montly_hours &le; 128.0<br/>entropy = 0.811<br/>samples = 4<br/>value = [1, 3]>, fillcolor="#7bbeee"] ;
352 -> 353 ;
354 [label=<entropy = 0.0<br/>samples = 1<br/>value = [1, 0]>, fillcolor="#e58139"] ;
353 -> 354 ;
355 [label=<entropy = 0.0<br/>samples = 3<br/>value = [0, 3]>, fillcolor="#399de5"] ;
353 -> 355 ;
356 [label=<entropy = 0.0<br/>samples = 8<br/>value = [8, 0]>, fillcolor="#e58139"] ;
352 -> 356 ;
357 [label=<last_evaluation &le; 0.765<br/>entropy = 0.027<br/>samples = 376<br/>value = [375, 1]>, fillcolor="#e5813a"] ;
349 -> 357 ;
358 [label=<entropy = 0.0<br/>samples = 320<br/>value = [320, 0]>, fillcolor="#e58139"] ;
357 -> 358 ;
359 [label=<last_evaluation &le; 0.775<br/>entropy = 0.129<br/>samples = 56<br/>value = [55, 1]>, fillcolor="#e5833d"] ;
357 -> 359 ;
360 [label=<average_montly_hours &le; 215.5<br/>entropy = 0.414<br/>samples = 12<br/>value = [11, 1]>, fillcolor="#e78c4b"] ;
359 -> 360 ;
361 [label=<entropy = 0.0<br/>samples = 10<br/>value = [10, 0]>, fillcolor="#e58139"] ;
360 -> 361 ;
362 [label=<average_montly_hours &le; 248.0<br/>entropy = 1.0<br/>samples = 2<br/>value = [1, 1]>, fillcolor="#ffffff"] ;
360 -> 362 ;
363 [label=<entropy = 0.0<br/>samples = 1<br/>value = [0, 1]>, fillcolor="#399de5"] ;
362 -> 363 ;
364 [label=<entropy = 0.0<br/>samples = 1<br/>value = [1, 0]>, fillcolor="#e58139"] ;
362 -> 364 ;
365 [label=<entropy = 0.0<br/>samples = 44<br/>value = [44, 0]>, fillcolor="#e58139"] ;
359 -> 365 ;
366 [label=<department_numerical &le; 4.5<br/>entropy = 0.243<br/>samples = 199<br/>value = [191, 8]>, fillcolor="#e68641"] ;
348 -> 366 ;
367 [label=<department_numerical &le; 2.5<br/>entropy = 0.401<br/>samples = 88<br/>value = [81, 7]>, fillcolor="#e78c4a"] ;
366 -> 367 ;
368 [label=<last_evaluation &le; 0.995<br/>entropy = 0.129<br/>samples = 56<br/>value = [55, 1]>, fillcolor="#e5833d"] ;
367 -> 368 ;
369 [label=<entropy = 0.0<br/>samples = 51<br/>value = [51, 0]>, fillcolor="#e58139"] ;
368 -> 369 ;
370 [label=<salary_numerical &le; 1.5<br/>entropy = 0.722<br/>samples = 5<br/>value = [4, 1]>, fillcolor="#eca06a"] ;
368 -> 370 ;
371 [label=<entropy = 0.0<br/>samples = 1<br/>value = [0, 1]>, fillcolor="#399de5"] ;
370 -> 371 ;
372 [label=<entropy = 0.0<br/>samples = 4<br/>value = [4, 0]>, fillcolor="#e58139"] ;
370 -> 372 ;
373 [label=<satisfaction_level &le; 0.635<br/>entropy = 0.696<br/>samples = 32<br/>value = [26, 6]>, fillcolor="#eb9e67"] ;
367 -> 373 ;
374 [label=<entropy = 0.0<br/>samples = 11<br/>value = [11, 0]>, fillcolor="#e58139"] ;
373 -> 374 ;
375 [label=<satisfaction_level &le; 0.765<br/>entropy = 0.863<br/>samples = 21<br/>value = [15, 6]>, fillcolor="#efb388"] ;
373 -> 375 ;
376 [label=<average_montly_hours &le; 173.5<br/>entropy = 1.0<br/>samples = 12<br/>value = [6, 6]>, fillcolor="#ffffff"] ;
375 -> 376 ;
377 [label=<entropy = 0.0<br/>samples = 5<br/>value = [5, 0]>, fillcolor="#e58139"] ;
376 -> 377 ;
378 [label=<last_evaluation &le; 0.955<br/>entropy = 0.592<br/>samples = 7<br/>value = [1, 6]>, fillcolor="#5aade9"] ;
376 -> 378 ;
379 [label=<entropy = 0.0<br/>samples = 6<br/>value = [0, 6]>, fillcolor="#399de5"] ;
378 -> 379 ;
380 [label=<entropy = 0.0<br/>samples = 1<br/>value = [1, 0]>, fillcolor="#e58139"] ;
378 -> 380 ;
381 [label=<entropy = 0.0<br/>samples = 9<br/>value = [9, 0]>, fillcolor="#e58139"] ;
375 -> 381 ;
382 [label=<last_evaluation &le; 0.835<br/>entropy = 0.074<br/>samples = 111<br/>value = [110, 1]>, fillcolor="#e5823b"] ;
366 -> 382 ;
383 [label=<number_project &le; 4.5<br/>entropy = 0.592<br/>samples = 7<br/>value = [6, 1]>, fillcolor="#e9965a"] ;
382 -> 383 ;
384 [label=<entropy = 0.0<br/>samples = 6<br/>value = [6, 0]>, fillcolor="#e58139"] ;
383 -> 384 ;
385 [label=<entropy = 0.0<br/>samples = 1<br/>value = [0, 1]>, fillcolor="#399de5"] ;
383 -> 385 ;
386 [label=<entropy = 0.0<br/>samples = 104<br/>value = [104, 0]>, fillcolor="#e58139"] ;
382 -> 386 ;
387 [label=<number_project &le; 2.5<br/>entropy = 0.559<br/>samples = 23<br/>value = [20, 3]>, fillcolor="#e99457"] ;
347 -> 387 ;
388 [label=<last_evaluation &le; 0.575<br/>entropy = 1.0<br/>samples = 6<br/>value = [3, 3]>, fillcolor="#ffffff"] ;
387 -> 388 ;
389 [label=<entropy = 0.0<br/>samples = 3<br/>value = [0, 3]>, fillcolor="#399de5"] ;
388 -> 389 ;
390 [label=<entropy = 0.0<br/>samples = 3<br/>value = [3, 0]>, fillcolor="#e58139"] ;
388 -> 390 ;
391 [label=<entropy = 0.0<br/>samples = 17<br/>value = [17, 0]>, fillcolor="#e58139"] ;
387 -> 391 ;
392 [label=<average_montly_hours &le; 160.5<br/>entropy = 0.408<br/>samples = 147<br/>value = [135, 12]>, fillcolor="#e78c4b"] ;
346 -> 392 ;
393 [label=<entropy = 0.0<br/>samples = 35<br/>value = [35, 0]>, fillcolor="#e58139"] ;
392 -> 393 ;
394 [label=<average_montly_hours &le; 182.5<br/>entropy = 0.491<br/>samples = 112<br/>value = [100, 12]>, fillcolor="#e89051"] ;
392 -> 394 ;
395 [label=<average_montly_hours &le; 181.5<br/>entropy = 0.845<br/>samples = 22<br/>value = [16, 6]>, fillcolor="#efb083"] ;
394 -> 395 ;
396 [label=<last_evaluation &le; 0.605<br/>entropy = 0.65<br/>samples = 18<br/>value = [15, 3]>, fillcolor="#ea9a61"] ;
395 -> 396 ;
397 [label=<average_montly_hours &le; 177.5<br/>entropy = 0.971<br/>samples = 5<br/>value = [3, 2]>, fillcolor="#f6d5bd"] ;
396 -> 397 ;
398 [label=<entropy = 0.0<br/>samples = 3<br/>value = [3, 0]>, fillcolor="#e58139"] ;
397 -> 398 ;
399 [label=<entropy = 0.0<br/>samples = 2<br/>value = [0, 2]>, fillcolor="#399de5"] ;
397 -> 399 ;
400 [label=<average_montly_hours &le; 163.5<br/>entropy = 0.391<br/>samples = 13<br/>value = [12, 1]>, fillcolor="#e78c49"] ;
396 -> 400 ;
401 [label=<Work_accident &le; 0.5<br/>entropy = 1.0<br/>samples = 2<br/>value = [1, 1]>, fillcolor="#ffffff"] ;
400 -> 401 ;
402 [label=<entropy = 0.0<br/>samples = 1<br/>value = [0, 1]>, fillcolor="#399de5"] ;
401 -> 402 ;
403 [label=<entropy = 0.0<br/>samples = 1<br/>value = [1, 0]>, fillcolor="#e58139"] ;
401 -> 403 ;
404 [label=<entropy = 0.0<br/>samples = 11<br/>value = [11, 0]>, fillcolor="#e58139"] ;
400 -> 404 ;
405 [label=<last_evaluation &le; 0.665<br/>entropy = 0.811<br/>samples = 4<br/>value = [1, 3]>, fillcolor="#7bbeee"] ;
395 -> 405 ;
406 [label=<entropy = 0.0<br/>samples = 1<br/>value = [1, 0]>, fillcolor="#e58139"] ;
405 -> 406 ;
407 [label=<entropy = 0.0<br/>samples = 3<br/>value = [0, 3]>, fillcolor="#399de5"] ;
405 -> 407 ;
408 [label=<satisfaction_level &le; 0.515<br/>entropy = 0.353<br/>samples = 90<br/>value = [84, 6]>, fillcolor="#e78a47"] ;
394 -> 408 ;
409 [label=<average_montly_hours &le; 243.5<br/>entropy = 0.918<br/>samples = 12<br/>value = [8, 4]>, fillcolor="#f2c09c"] ;
408 -> 409 ;
410 [label=<entropy = 0.0<br/>samples = 7<br/>value = [7, 0]>, fillcolor="#e58139"] ;
409 -> 410 ;
411 [label=<last_evaluation &le; 0.885<br/>entropy = 0.722<br/>samples = 5<br/>value = [1, 4]>, fillcolor="#6ab6ec"] ;
409 -> 411 ;
412 [label=<entropy = 0.0<br/>samples = 4<br/>value = [0, 4]>, fillcolor="#399de5"] ;
411 -> 412 ;
413 [label=<entropy = 0.0<br/>samples = 1<br/>value = [1, 0]>, fillcolor="#e58139"] ;
411 -> 413 ;
414 [label=<satisfaction_level &le; 0.895<br/>entropy = 0.172<br/>samples = 78<br/>value = [76, 2]>, fillcolor="#e6843e"] ;
408 -> 414 ;
415 [label=<entropy = 0.0<br/>samples = 73<br/>value = [73, 0]>, fillcolor="#e58139"] ;
414 -> 415 ;
416 [label=<average_montly_hours &le; 208.5<br/>entropy = 0.971<br/>samples = 5<br/>value = [3, 2]>, fillcolor="#f6d5bd"] ;
414 -> 416 ;
417 [label=<entropy = 0.0<br/>samples = 2<br/>value = [0, 2]>, fillcolor="#399de5"] ;
416 -> 417 ;
418 [label=<entropy = 0.0<br/>samples = 3<br/>value = [3, 0]>, fillcolor="#e58139"] ;
416 -> 418 ;
419 [label=<entropy = 0.0<br/>samples = 164<br/>value = [164, 0]>, fillcolor="#e58139"] ;
345 -> 419 ;
420 [label=<number_project &le; 6.5<br/>entropy = 0.513<br/>samples = 105<br/>value = [93, 12]>, fillcolor="#e89153"] ;
204 -> 420 ;
421 [label=<last_evaluation &le; 0.625<br/>entropy = 0.431<br/>samples = 102<br/>value = [93, 9]>, fillcolor="#e88d4c"] ;
420 -> 421 ;
422 [label=<entropy = 0.0<br/>samples = 39<br/>value = [39, 0]>, fillcolor="#e58139"] ;
421 -> 422 ;
423 [label=<salary_numerical &le; 1.5<br/>entropy = 0.592<br/>samples = 63<br/>value = [54, 9]>, fillcolor="#e9965a"] ;
421 -> 423 ;
424 [label=<satisfaction_level &le; 0.74<br/>entropy = 0.824<br/>samples = 31<br/>value = [23, 8]>, fillcolor="#eead7e"] ;
423 -> 424 ;
425 [label=<satisfaction_level &le; 0.685<br/>entropy = 0.989<br/>samples = 16<br/>value = [9, 7]>, fillcolor="#f9e3d3"] ;
424 -> 425 ;
426 [label=<average_montly_hours &le; 188.0<br/>entropy = 0.89<br/>samples = 13<br/>value = [9, 4]>, fillcolor="#f1b991"] ;
425 -> 426 ;
427 [label=<entropy = 0.0<br/>samples = 6<br/>value = [6, 0]>, fillcolor="#e58139"] ;
426 -> 427 ;
428 [label=<last_evaluation &le; 0.87<br/>entropy = 0.985<br/>samples = 7<br/>value = [3, 4]>, fillcolor="#cee6f8"] ;
426 -> 428 ;
429 [label=<last_evaluation &le; 0.645<br/>entropy = 0.811<br/>samples = 4<br/>value = [3, 1]>, fillcolor="#eeab7b"] ;
428 -> 429 ;
430 [label=<entropy = 0.0<br/>samples = 1<br/>value = [0, 1]>, fillcolor="#399de5"] ;
429 -> 430 ;
431 [label=<entropy = 0.0<br/>samples = 3<br/>value = [3, 0]>, fillcolor="#e58139"] ;
429 -> 431 ;
432 [label=<entropy = 0.0<br/>samples = 3<br/>value = [0, 3]>, fillcolor="#399de5"] ;
428 -> 432 ;
433 [label=<entropy = 0.0<br/>samples = 3<br/>value = [0, 3]>, fillcolor="#399de5"] ;
425 -> 433 ;
434 [label=<last_evaluation &le; 0.975<br/>entropy = 0.353<br/>samples = 15<br/>value = [14, 1]>, fillcolor="#e78a47"] ;
424 -> 434 ;
435 [label=<entropy = 0.0<br/>samples = 14<br/>value = [14, 0]>, fillcolor="#e58139"] ;
434 -> 435 ;
436 [label=<entropy = 0.0<br/>samples = 1<br/>value = [0, 1]>, fillcolor="#399de5"] ;
434 -> 436 ;
437 [label=<department_numerical &le; 0.5<br/>entropy = 0.201<br/>samples = 32<br/>value = [31, 1]>, fillcolor="#e6853f"] ;
423 -> 437 ;
438 [label=<salary_numerical &le; 2.5<br/>entropy = 0.918<br/>samples = 3<br/>value = [2, 1]>, fillcolor="#f2c09c"] ;
437 -> 438 ;
439 [label=<entropy = 0.0<br/>samples = 1<br/>value = [0, 1]>, fillcolor="#399de5"] ;
438 -> 439 ;
440 [label=<entropy = 0.0<br/>samples = 2<br/>value = [2, 0]>, fillcolor="#e58139"] ;
438 -> 440 ;
441 [label=<entropy = 0.0<br/>samples = 29<br/>value = [29, 0]>, fillcolor="#e58139"] ;
437 -> 441 ;
442 [label=<entropy = 0.0<br/>samples = 3<br/>value = [0, 3]>, fillcolor="#399de5"] ;
420 -> 442 ;
443 [label=<entropy = 0.0<br/>samples = 7<br/>value = [0, 7]>, fillcolor="#399de5"] ;
203 -> 443 ;
444 [label=<last_evaluation &le; 0.805<br/>entropy = 0.997<br/>samples = 1400<br/>value = [743, 657]>, fillcolor="#fcf0e8"] ;
202 -> 444 ;
445 [label=<time_spend_company &le; 6.5<br/>entropy = 0.242<br/>samples = 526<br/>value = [505, 21]>, fillcolor="#e68641"] ;
444 -> 445 ;
446 [label=<last_evaluation &le; 0.525<br/>entropy = 0.353<br/>samples = 316<br/>value = [295, 21]>, fillcolor="#e78a47"] ;
445 -> 446 ;
447 [label=<entropy = 0.0<br/>samples = 104<br/>value = [104, 0]>, fillcolor="#e58139"] ;
446 -> 447 ;
448 [label=<department_numerical &le; 7.5<br/>entropy = 0.466<br/>samples = 212<br/>value = [191, 21]>, fillcolor="#e88f4f"] ;
446 -> 448 ;
449 [label=<average_montly_hours &le; 248.0<br/>entropy = 0.254<br/>samples = 141<br/>value = [135, 6]>, fillcolor="#e68742"] ;
448 -> 449 ;
450 [label=<satisfaction_level &le; 0.535<br/>entropy = 0.077<br/>samples = 106<br/>value = [105, 1]>, fillcolor="#e5823b"] ;
449 -> 450 ;
451 [label=<satisfaction_level &le; 0.525<br/>entropy = 0.469<br/>samples = 10<br/>value = [9, 1]>, fillcolor="#e88f4f"] ;
450 -> 451 ;
452 [label=<entropy = 0.0<br/>samples = 7<br/>value = [7, 0]>, fillcolor="#e58139"] ;
451 -> 452 ;
453 [label=<last_evaluation &le; 0.755<br/>entropy = 0.918<br/>samples = 3<br/>value = [2, 1]>, fillcolor="#f2c09c"] ;
451 -> 453 ;
454 [label=<entropy = 0.0<br/>samples = 2<br/>value = [2, 0]>, fillcolor="#e58139"] ;
453 -> 454 ;
455 [label=<entropy = 0.0<br/>samples = 1<br/>value = [0, 1]>, fillcolor="#399de5"] ;
453 -> 455 ;
456 [label=<entropy = 0.0<br/>samples = 96<br/>value = [96, 0]>, fillcolor="#e58139"] ;
450 -> 456 ;
457 [label=<department_numerical &le; 5.5<br/>entropy = 0.592<br/>samples = 35<br/>value = [30, 5]>, fillcolor="#e9965a"] ;
449 -> 457 ;
458 [label=<average_montly_hours &le; 249.5<br/>entropy = 0.852<br/>samples = 18<br/>value = [13, 5]>, fillcolor="#efb185"] ;
457 -> 458 ;
459 [label=<entropy = 0.0<br/>samples = 2<br/>value = [0, 2]>, fillcolor="#399de5"] ;
458 -> 459 ;
460 [label=<number_project &le; 3.5<br/>entropy = 0.696<br/>samples = 16<br/>value = [13, 3]>, fillcolor="#eb9e67"] ;
458 -> 460 ;
461 [label=<entropy = 0.0<br/>samples = 6<br/>value = [6, 0]>, fillcolor="#e58139"] ;
460 -> 461 ;
462 [label=<number_project &le; 4.5<br/>entropy = 0.881<br/>samples = 10<br/>value = [7, 3]>, fillcolor="#f0b78e"] ;
460 -> 462 ;
463 [label=<average_montly_hours &le; 272.0<br/>entropy = 1.0<br/>samples = 6<br/>value = [3, 3]>, fillcolor="#ffffff"] ;
462 -> 463 ;
464 [label=<last_evaluation &le; 0.765<br/>entropy = 0.811<br/>samples = 4<br/>value = [3, 1]>, fillcolor="#eeab7b"] ;
463 -> 464 ;
465 [label=<entropy = 0.0<br/>samples = 3<br/>value = [3, 0]>, fillcolor="#e58139"] ;
464 -> 465 ;
466 [label=<entropy = 0.0<br/>samples = 1<br/>value = [0, 1]>, fillcolor="#399de5"] ;
464 -> 466 ;
467 [label=<entropy = 0.0<br/>samples = 2<br/>value = [0, 2]>, fillcolor="#399de5"] ;
463 -> 467 ;
468 [label=<entropy = 0.0<br/>samples = 4<br/>value = [4, 0]>, fillcolor="#e58139"] ;
462 -> 468 ;
469 [label=<entropy = 0.0<br/>samples = 17<br/>value = [17, 0]>, fillcolor="#e58139"] ;
457 -> 469 ;
470 [label=<salary_numerical &le; 2.5<br/>entropy = 0.744<br/>samples = 71<br/>value = [56, 15]>, fillcolor="#eca36e"] ;
448 -> 470 ;
471 [label=<average_montly_hours &le; 266.5<br/>entropy = 0.592<br/>samples = 63<br/>value = [54, 9]>, fillcolor="#e9965a"] ;
470 -> 471 ;
472 [label=<last_evaluation &le; 0.655<br/>entropy = 0.429<br/>samples = 57<br/>value = [52, 5]>, fillcolor="#e88d4c"] ;
471 -> 472 ;
473 [label=<last_evaluation &le; 0.595<br/>entropy = 0.65<br/>samples = 30<br/>value = [25, 5]>, fillcolor="#ea9a61"] ;
472 -> 473 ;
474 [label=<entropy = 0.0<br/>samples = 14<br/>value = [14, 0]>, fillcolor="#e58139"] ;
473 -> 474 ;
475 [label=<average_montly_hours &le; 152.5<br/>entropy = 0.896<br/>samples = 16<br/>value = [11, 5]>, fillcolor="#f1ba93"] ;
473 -> 475 ;
476 [label=<entropy = 0.0<br/>samples = 6<br/>value = [6, 0]>, fillcolor="#e58139"] ;
475 -> 476 ;
477 [label=<satisfaction_level &le; 0.895<br/>entropy = 1.0<br/>samples = 10<br/>value = [5, 5]>, fillcolor="#ffffff"] ;
475 -> 477 ;
478 [label=<number_project &le; 2.5<br/>entropy = 0.954<br/>samples = 8<br/>value = [3, 5]>, fillcolor="#b0d8f5"] ;
477 -> 478 ;
479 [label=<entropy = 0.0<br/>samples = 2<br/>value = [2, 0]>, fillcolor="#e58139"] ;
478 -> 479 ;
480 [label=<satisfaction_level &le; 0.67<br/>entropy = 0.65<br/>samples = 6<br/>value = [1, 5]>, fillcolor="#61b1ea"] ;
478 -> 480 ;
481 [label=<average_montly_hours &le; 198.0<br/>entropy = 1.0<br/>samples = 2<br/>value = [1, 1]>, fillcolor="#ffffff"] ;
480 -> 481 ;
482 [label=<entropy = 0.0<br/>samples = 1<br/>value = [1, 0]>, fillcolor="#e58139"] ;
481 -> 482 ;
483 [label=<entropy = 0.0<br/>samples = 1<br/>value = [0, 1]>, fillcolor="#399de5"] ;
481 -> 483 ;
484 [label=<entropy = 0.0<br/>samples = 4<br/>value = [0, 4]>, fillcolor="#399de5"] ;
480 -> 484 ;
485 [label=<entropy = 0.0<br/>samples = 2<br/>value = [2, 0]>, fillcolor="#e58139"] ;
477 -> 485 ;
486 [label=<entropy = 0.0<br/>samples = 27<br/>value = [27, 0]>, fillcolor="#e58139"] ;
472 -> 486 ;
487 [label=<average_montly_hours &le; 278.5<br/>entropy = 0.918<br/>samples = 6<br/>value = [2, 4]>, fillcolor="#9ccef2"] ;
471 -> 487 ;
488 [label=<entropy = 0.0<br/>samples = 4<br/>value = [0, 4]>, fillcolor="#399de5"] ;
487 -> 488 ;
489 [label=<entropy = 0.0<br/>samples = 2<br/>value = [2, 0]>, fillcolor="#e58139"] ;
487 -> 489 ;
490 [label=<satisfaction_level &le; 0.86<br/>entropy = 0.811<br/>samples = 8<br/>value = [2, 6]>, fillcolor="#7bbeee"] ;
470 -> 490 ;
491 [label=<entropy = 0.0<br/>samples = 6<br/>value = [0, 6]>, fillcolor="#399de5"] ;
490 -> 491 ;
492 [label=<entropy = 0.0<br/>samples = 2<br/>value = [2, 0]>, fillcolor="#e58139"] ;
490 -> 492 ;
493 [label=<entropy = 0.0<br/>samples = 210<br/>value = [210, 0]>, fillcolor="#e58139"] ;
445 -> 493 ;
494 [label=<average_montly_hours &le; 215.5<br/>entropy = 0.845<br/>samples = 874<br/>value = [238, 636]>, fillcolor="#83c2ef"] ;
444 -> 494 ;
495 [label=<time_spend_company &le; 5.5<br/>entropy = 0.35<br/>samples = 152<br/>value = [142, 10]>, fillcolor="#e78a47"] ;
494 -> 495 ;
496 [label=<number_project &le; 3.5<br/>entropy = 0.731<br/>samples = 44<br/>value = [35, 9]>, fillcolor="#eca16c"] ;
495 -> 496 ;
497 [label=<salary_numerical &le; 1.5<br/>entropy = 0.985<br/>samples = 21<br/>value = [12, 9]>, fillcolor="#f8e0ce"] ;
496 -> 497 ;
498 [label=<satisfaction_level &le; 0.915<br/>entropy = 0.503<br/>samples = 9<br/>value = [1, 8]>, fillcolor="#52a9e8"] ;
497 -> 498 ;
499 [label=<entropy = 0.0<br/>samples = 8<br/>value = [0, 8]>, fillcolor="#399de5"] ;
498 -> 499 ;
500 [label=<entropy = 0.0<br/>samples = 1<br/>value = [1, 0]>, fillcolor="#e58139"] ;
498 -> 500 ;
501 [label=<satisfaction_level &le; 0.885<br/>entropy = 0.414<br/>samples = 12<br/>value = [11, 1]>, fillcolor="#e78c4b"] ;
497 -> 501 ;
502 [label=<entropy = 0.0<br/>samples = 9<br/>value = [9, 0]>, fillcolor="#e58139"] ;
501 -> 502 ;
503 [label=<department_numerical &le; 8.5<br/>entropy = 0.918<br/>samples = 3<br/>value = [2, 1]>, fillcolor="#f2c09c"] ;
501 -> 503 ;
504 [label=<entropy = 0.0<br/>samples = 2<br/>value = [2, 0]>, fillcolor="#e58139"] ;
503 -> 504 ;
505 [label=<entropy = 0.0<br/>samples = 1<br/>value = [0, 1]>, fillcolor="#399de5"] ;
503 -> 505 ;
506 [label=<entropy = 0.0<br/>samples = 23<br/>value = [23, 0]>, fillcolor="#e58139"] ;
496 -> 506 ;
507 [label=<number_project &le; 5.5<br/>entropy = 0.076<br/>samples = 108<br/>value = [107, 1]>, fillcolor="#e5823b"] ;
495 -> 507 ;
508 [label=<entropy = 0.0<br/>samples = 104<br/>value = [104, 0]>, fillcolor="#e58139"] ;
507 -> 508 ;
509 [label=<last_evaluation &le; 0.89<br/>entropy = 0.811<br/>samples = 4<br/>value = [3, 1]>, fillcolor="#eeab7b"] ;
507 -> 509 ;
510 [label=<entropy = 0.0<br/>samples = 1<br/>value = [0, 1]>, fillcolor="#399de5"] ;
509 -> 510 ;
511 [label=<entropy = 0.0<br/>samples = 3<br/>value = [3, 0]>, fillcolor="#e58139"] ;
509 -> 511 ;
512 [label=<time_spend_company &le; 6.5<br/>entropy = 0.566<br/>samples = 722<br/>value = [96, 626]>, fillcolor="#57ace9"] ;
494 -> 512 ;
513 [label=<satisfaction_level &le; 0.715<br/>entropy = 0.386<br/>samples = 677<br/>value = [51, 626]>, fillcolor="#49a5e7"] ;
512 -> 513 ;
514 [label=<salary_numerical &le; 1.5<br/>entropy = 0.811<br/>samples = 32<br/>value = [24, 8]>, fillcolor="#eeab7b"] ;
513 -> 514 ;
515 [label=<number_project &le; 3.5<br/>entropy = 0.996<br/>samples = 13<br/>value = [6, 7]>, fillcolor="#e3f1fb"] ;
514 -> 515 ;
516 [label=<entropy = 0.0<br/>samples = 5<br/>value = [0, 5]>, fillcolor="#399de5"] ;
515 -> 516 ;
517 [label=<department_numerical &le; 6.5<br/>entropy = 0.811<br/>samples = 8<br/>value = [6, 2]>, fillcolor="#eeab7b"] ;
515 -> 517 ;
518 [label=<number_project &le; 4.5<br/>entropy = 0.918<br/>samples = 3<br/>value = [1, 2]>, fillcolor="#9ccef2"] ;
517 -> 518 ;
519 [label=<entropy = 0.0<br/>samples = 1<br/>value = [1, 0]>, fillcolor="#e58139"] ;
518 -> 519 ;
520 [label=<entropy = 0.0<br/>samples = 2<br/>value = [0, 2]>, fillcolor="#399de5"] ;
518 -> 520 ;
521 [label=<entropy = 0.0<br/>samples = 5<br/>value = [5, 0]>, fillcolor="#e58139"] ;
517 -> 521 ;
522 [label=<last_evaluation &le; 0.995<br/>entropy = 0.297<br/>samples = 19<br/>value = [18, 1]>, fillcolor="#e68844"] ;
514 -> 522 ;
523 [label=<entropy = 0.0<br/>samples = 18<br/>value = [18, 0]>, fillcolor="#e58139"] ;
522 -> 523 ;
524 [label=<entropy = 0.0<br/>samples = 1<br/>value = [0, 1]>, fillcolor="#399de5"] ;
522 -> 524 ;
525 [label=<number_project &le; 3.5<br/>entropy = 0.251<br/>samples = 645<br/>value = [27, 618]>, fillcolor="#42a1e6"] ;
513 -> 525 ;
526 [label=<average_montly_hours &le; 296.5<br/>entropy = 0.337<br/>samples = 16<br/>value = [15, 1]>, fillcolor="#e78946"] ;
525 -> 526 ;
527 [label=<entropy = 0.0<br/>samples = 15<br/>value = [15, 0]>, fillcolor="#e58139"] ;
526 -> 527 ;
528 [label=<entropy = 0.0<br/>samples = 1<br/>value = [0, 1]>, fillcolor="#399de5"] ;
526 -> 528 ;
529 [label=<satisfaction_level &le; 0.925<br/>entropy = 0.136<br/>samples = 629<br/>value = [12, 617]>, fillcolor="#3d9fe6"] ;
525 -> 529 ;
530 [label=<number_project &le; 5.5<br/>entropy = 0.109<br/>samples = 626<br/>value = [9, 617]>, fillcolor="#3c9ee5"] ;
529 -> 530 ;
531 [label=<salary_numerical &le; 1.5<br/>entropy = 0.089<br/>samples = 622<br/>value = [7, 615]>, fillcolor="#3b9ee5"] ;
530 -> 531 ;
532 [label=<satisfaction_level &le; 0.895<br/>entropy = 0.027<br/>samples = 377<br/>value = [1, 376]>, fillcolor="#3a9de5"] ;
531 -> 532 ;
533 [label=<entropy = 0.0<br/>samples = 327<br/>value = [0, 327]>, fillcolor="#399de5"] ;
532 -> 533 ;
534 [label=<average_montly_hours &le; 231.5<br/>entropy = 0.141<br/>samples = 50<br/>value = [1, 49]>, fillcolor="#3d9fe6"] ;
532 -> 534 ;
535 [label=<average_montly_hours &le; 230.0<br/>entropy = 0.544<br/>samples = 8<br/>value = [1, 7]>, fillcolor="#55abe9"] ;
534 -> 535 ;
536 [label=<entropy = 0.0<br/>samples = 7<br/>value = [0, 7]>, fillcolor="#399de5"] ;
535 -> 536 ;
537 [label=<entropy = 0.0<br/>samples = 1<br/>value = [1, 0]>, fillcolor="#e58139"] ;
535 -> 537 ;
538 [label=<entropy = 0.0<br/>samples = 42<br/>value = [0, 42]>, fillcolor="#399de5"] ;
534 -> 538 ;
539 [label=<average_montly_hours &le; 277.5<br/>entropy = 0.166<br/>samples = 245<br/>value = [6, 239]>, fillcolor="#3e9fe6"] ;
531 -> 539 ;
540 [label=<average_montly_hours &le; 243.5<br/>entropy = 0.144<br/>samples = 244<br/>value = [5, 239]>, fillcolor="#3d9fe6"] ;
539 -> 540 ;
541 [label=<number_project &le; 4.5<br/>entropy = 0.265<br/>samples = 111<br/>value = [5, 106]>, fillcolor="#42a2e6"] ;
540 -> 541 ;
542 [label=<department_numerical &le; 6.5<br/>entropy = 0.485<br/>samples = 38<br/>value = [4, 34]>, fillcolor="#50a9e8"] ;
541 -> 542 ;
543 [label=<entropy = 0.0<br/>samples = 13<br/>value = [0, 13]>, fillcolor="#399de5"] ;
542 -> 543 ;
544 [label=<last_evaluation &le; 0.86<br/>entropy = 0.634<br/>samples = 25<br/>value = [4, 21]>, fillcolor="#5fb0ea"] ;
542 -> 544 ;
545 [label=<entropy = 0.0<br/>samples = 8<br/>value = [0, 8]>, fillcolor="#399de5"] ;
544 -> 545 ;
546 [label=<satisfaction_level &le; 0.785<br/>entropy = 0.787<br/>samples = 17<br/>value = [4, 13]>, fillcolor="#76bbed"] ;
544 -> 546 ;
547 [label=<entropy = 0.0<br/>samples = 5<br/>value = [0, 5]>, fillcolor="#399de5"] ;
546 -> 547 ;
548 [label=<satisfaction_level &le; 0.855<br/>entropy = 0.918<br/>samples = 12<br/>value = [4, 8]>, fillcolor="#9ccef2"] ;
546 -> 548 ;
549 [label=<department_numerical &le; 8.0<br/>entropy = 0.811<br/>samples = 4<br/>value = [3, 1]>, fillcolor="#eeab7b"] ;
548 -> 549 ;
550 [label=<entropy = 0.0<br/>samples = 2<br/>value = [2, 0]>, fillcolor="#e58139"] ;
549 -> 550 ;
551 [label=<time_spend_company &le; 5.5<br/>entropy = 1.0<br/>samples = 2<br/>value = [1, 1]>, fillcolor="#ffffff"] ;
549 -> 551 ;
552 [label=<entropy = 0.0<br/>samples = 1<br/>value = [0, 1]>, fillcolor="#399de5"] ;
551 -> 552 ;
553 [label=<entropy = 0.0<br/>samples = 1<br/>value = [1, 0]>, fillcolor="#e58139"] ;
551 -> 553 ;
554 [label=<average_montly_hours &le; 233.0<br/>entropy = 0.544<br/>samples = 8<br/>value = [1, 7]>, fillcolor="#55abe9"] ;
548 -> 554 ;
555 [label=<entropy = 0.0<br/>samples = 6<br/>value = [0, 6]>, fillcolor="#399de5"] ;
554 -> 555 ;
556 [label=<last_evaluation &le; 0.96<br/>entropy = 1.0<br/>samples = 2<br/>value = [1, 1]>, fillcolor="#ffffff"] ;
554 -> 556 ;
557 [label=<entropy = 0.0<br/>samples = 1<br/>value = [0, 1]>, fillcolor="#399de5"] ;
556 -> 557 ;
558 [label=<entropy = 0.0<br/>samples = 1<br/>value = [1, 0]>, fillcolor="#e58139"] ;
556 -> 558 ;
559 [label=<average_montly_hours &le; 242.5<br/>entropy = 0.104<br/>samples = 73<br/>value = [1, 72]>, fillcolor="#3c9ee5"] ;
541 -> 559 ;
560 [label=<entropy = 0.0<br/>samples = 66<br/>value = [0, 66]>, fillcolor="#399de5"] ;
559 -> 560 ;
561 [label=<last_evaluation &le; 0.975<br/>entropy = 0.592<br/>samples = 7<br/>value = [1, 6]>, fillcolor="#5aade9"] ;
559 -> 561 ;
562 [label=<entropy = 0.0<br/>samples = 6<br/>value = [0, 6]>, fillcolor="#399de5"] ;
561 -> 562 ;
563 [label=<entropy = 0.0<br/>samples = 1<br/>value = [1, 0]>, fillcolor="#e58139"] ;
561 -> 563 ;
564 [label=<entropy = 0.0<br/>samples = 133<br/>value = [0, 133]>, fillcolor="#399de5"] ;
540 -> 564 ;
565 [label=<entropy = 0.0<br/>samples = 1<br/>value = [1, 0]>, fillcolor="#e58139"] ;
539 -> 565 ;
566 [label=<average_montly_hours &le; 277.0<br/>entropy = 1.0<br/>samples = 4<br/>value = [2, 2]>, fillcolor="#ffffff"] ;
530 -> 566 ;
567 [label=<entropy = 0.0<br/>samples = 2<br/>value = [2, 0]>, fillcolor="#e58139"] ;
566 -> 567 ;
568 [label=<entropy = 0.0<br/>samples = 2<br/>value = [0, 2]>, fillcolor="#399de5"] ;
566 -> 568 ;
569 [label=<entropy = 0.0<br/>samples = 3<br/>value = [3, 0]>, fillcolor="#e58139"] ;
529 -> 569 ;
570 [label=<entropy = 0.0<br/>samples = 45<br/>value = [45, 0]>, fillcolor="#e58139"] ;
512 -> 570 ;
}